3.9708470959174007 -0.8727219214376309 -2.48382740983796 -3.2115946446161607 3.6457008180725676 -8.20864147400651 3.3339699621247036 3.8825616529324365 1.4996225630679272 2.461257297147922 
1.4593821226556036 0.10145396953714102 0.39900778942952714 1.1120114561224999 -2.1917666095452506 9.34336461142449 4.027465580263328 3.1344990214353867 -3.5534337889588827 -8.030586664639785 
-1.167780377898326 -0.6312323456545829 -0.8075508438865678 -1.743684815516971 2.3324460129959053 -3.8733765230088553 4.757563377834532 -1.1073146923409383 4.420787871489875 -4.97183983525189 
-4.170410474245067 0.02104026518942899 0.5331663686054986 0.8639803424009009 -5.479110067845629 9.417570240092525 1.3557678875168855 3.453125686164847 -0.5526958668980806 7.25188788556405 
-3.9032899263056104 -0.46507943285310555 0.0753271901959329 -0.3481979036152506 2.570076181026741 5.513361189818232 -1.237786118173544 1.2247268495093708 -2.767964142521352 6.578505351498872 
0.29974593094547214 0.06392491501273356 -0.3546392707542403 0.09130799465036356 3.148052746940869 1.8148770248930437 0.6967993792049465 3.96973566806811 -1.273688412958879 1.5678227108040466 
-2.0771642757231046 -0.5885694598864871 -1.0715657516367485 -1.9784288356199797 3.155130575042951 2.1769852336797566 0.9989809359816473 -1.8747564508840127 -0.2374869887055695 -7.632205056858842 
5.95358835081058 -1.3815704505803346 -1.6124859312909083 -2.346180601924321 0.6283132436174198 -5.015415482239242 3.045351228300649 1.4251205466934491 -0.4292401435066852 -7.275413146829446 
3.4947820595908765 -1.1616362031091687 -2.5635395396418046 -4.0115685802633285 4.123074632256389 -7.781178287265417 2.6653363086145623 2.6188006212791732 2.938929287172704 5.093829622650687 
-3.505732168597034 0.22318155886081756 1.92048456022468 2.2276740091660456 -0.7253214602045728 6.65104856477293 -2.31034878976747 1.7902784499167528 -4.906265783131283 -4.711452100658882 
-1.4552900800034072 0.9517175525087601 1.664622523354725 2.674317991347505 -1.876275646666932 4.578962321566534 -1.8354288368379155 -1.8915606952101085 -1.5295739456914499 -2.3320443796548704 
5.020432138314705 -0.9115498188297735 -1.534195721171259 -2.3141023929012485 -11.663255000710146 -3.4629163585703826 -7.538198783000662 1.8544727010858182 -6.384934550939379 8.446323736881698 
0.4332907526094399 -0.7885877835486433 -2.0240216916553417 -2.944735930625311 3.902798619166881 -7.8172287034684524 -0.5270747366365488 1.507920186551921 -1.2491755282687187 -4.0274298105088 
-4.1837525960570146 0.011595472989218902 0.09624692008834021 0.3076962757871277 -2.4324229239051465 0.8028676430659261 -4.779302030348026 -2.8914272170409463 -3.384956774417948 7.679440251173828 
3.8103145783151895 -1.0861986024358627 -2.7611214702855285 -3.8072111434253224 3.00315243612611 -7.749944190335128 2.5505002779191432 2.429994386757834 2.5941909853072795 2.6501290167989002 
1.311865345043243 -0.3891597999293469 -0.37678671762585203 -0.7888572972245934 0.9469907131512125 -2.5840734227738844 7.301654749596609 3.751220521074572 1.0034650196660462 -1.6311282101845748 
-5.7050607751042195 0.19539173855914027 0.6440226994177838 0.11054820878281735 -3.1440021835794476 5.808369406429256 -6.134714845985927 -3.6165032970864215 -0.05244356349911452 3.0829321835945738 
1.830190592695189 -0.38139746158224896 -0.47291382067528864 -0.41899971001862263 2.3645832570181384 -2.735672191800315 2.1701122424319186 0.8528606527859006 2.216557346329194 -2.5849781468503603 
-7.063918188289432 -0.5210006261713535 -0.6058283253834786 -0.5121479287274344 4.701343617644414 7.513549507392793 -7.908931016539213 -3.5746186179412596 4.214257942779615 6.912830417658762 
2.239427122578518 -1.165252092534711 -1.8336044914777208 -2.9524453129040467 2.4775960458842907 -5.821740818236944 1.160951429058418 2.12062276694555 1.9567571896970788 9.6736426476513 
4.937338419140445 -1.3333499117840306 -2.2446320821783194 -3.2455882118335415 4.856067545383363 -9.979588850125536 3.948278970399941 3.295406292397747 4.724066480125972 3.259021261346154 
1.2878777594744522 -0.8860616132438052 -0.7489206467191482 -0.9753394951554127 1.1902977832668094 -2.5226494948530744 0.461301220197355 0.6587932195187477 0.3763943872779407 0.6612573621767264 
-1.2171766140339622 -0.3092469934486985 -0.5009482720026983 -1.0918369759023592 -2.1275122624852854 12.46836237136116 2.738738324611043 4.56938105052216 -0.39591550291660277 6.4061649449840266 
-2.9523326949510396 1.1575963573755275 2.1766790759553936 4.271227999166283 -3.3931312919730847 7.7626258146524165 -2.4779034175615786 -3.5666712162660104 -2.0930686945256216 -4.49838234228695 
-0.8510294454932429 -0.17409653464442226 -0.265658499492791 -0.4527658666529061 -2.462674150924693 2.7302326793695952 -0.8593109165598878 2.507583599760865 -2.5374495100479226 4.816942434887306 
-1.942822443649035 1.8356697596504834 3.117187242860697 4.51075221677794 -4.122950987694212 8.176303074897898 -2.6511950233337993 -1.7585075798242196 -4.424685738897941 -8.79653350479029 
